1413393890.255760 -1.613358 -1.895319 -4.935485 
1413393890.355761 -0.514660 -0.224409 -1.526098 
1413393890.505760 -0.353733 -0.573962 -1.011310 
1413393890.605761 -0.554178 -1.363955 -1.620710 
1413393890.755760 0.096940 0.371566 0.380336 
1413393890.855761 -0.061099 -0.132227 -0.102877 
1413393891.005760 0.114641 0.404220 0.436175 
1413393891.105761 -0.991190 -2.308945 -2.969395 
1413393891.255760 -0.319392 -1.055293 -0.890709 
1413393891.355761 -0.401144 -1.380139 -1.139311 
1413393891.505760 0.014298 0.434140 0.119393 
1413393891.605761 -0.370128 0.058863 -1.079489 
1413393891.755760 -0.105459 0.589707 -0.260424 
1413393891.855761 -0.125552 0.656721 -0.325236 
1413393891.955760 -0.592538 -1.049006 -1.749490 
1413393892.105761 -1.145785 -2.842545 -3.446631 
1413393892.205760 -1.115145 -2.706820 -3.360825 
1413393892.355761 -1.121687 -2.726163 -3.380632 
1413393892.455760 -0.818906 -1.914630 -2.456427 
1413393892.605761 -0.557246 -1.191459 -1.658635 
1413393892.705760 -0.494528 -1.084407 -1.469261 
1413393892.805760 -0.495718 -1.065532 -1.472715 
1413393892.905761 -0.406363 -0.830166 -1.195414 
1413393893.055760 -0.286353 -0.513273 -0.824076 
1413393893.155761 -0.282890 -0.518320 -0.812890 
1413393893.305760 -0.256976 -0.471173 -0.731897 
1413393893.405761 -0.153597 -0.299341 -0.409812 
1413393893.555760 -0.152344 -0.289495 -0.406202 
1413393893.655761 -0.152662 -0.286946 -0.406924 
1413393893.805760 -0.148047 -0.301061 -0.392783 
1413393893.905761 -0.144259 -0.303379 -0.381484 
1413393894.055760 -0.144853 -0.266412 -0.383789 
1413393894.155761 -0.108749 -0.188228 -0.271726 
1413393894.305760 -0.112282 -0.202770 -0.282279 
1413393894.405761 -0.104133 -0.213192 -0.256717 
1413393894.555760 -0.104231 -0.221135 -0.255749 
1413393894.655761 -0.103529 -0.246911 -0.252997 
1413393894.805760 -0.115027 -0.214390 -0.289238 
1413393894.905761 -0.120501 -0.178312 -0.307137 
1413393895.055760 -0.122787 -0.187710 -0.314742 
1413393895.155761 -0.120632 -0.173259 -0.308578 
1413393895.255760 -0.122304 -0.191173 -0.314035 
1413393895.355761 -0.124851 -0.200203 -0.320801 
1413393895.505760 -0.126227 -0.197592 -0.324790 
1413393895.605761 -0.125786 -0.201213 -0.322770 
1413393895.705760 -0.127013 -0.203816 -0.326854 
1413393895.855761 -0.129009 -0.186957 -0.332940 
1413393896.005760 -0.132503 -0.156282 -0.343901 
1413393896.105761 -0.134910 -0.176168 -0.351950 
1413393896.255760 -0.132253 -0.196778 -0.343309 
1413393896.355761 -0.132586 -0.168325 -0.344636 
1413393896.455760 -0.138726 -0.144840 -0.365094 
1413393896.605761 -0.139445 -0.128801 -0.367176 
1413393896.755760 -0.135735 -0.062429 -0.353979 
1413393896.855761 -0.133811 -0.073628 -0.347830 
1413393897.005760 -0.134525 -0.040880 -0.350545 
1413393897.105761 -0.131720 -0.005451 -0.341135 
1413393897.255760 -0.128580 0.000633 -0.330848 
1413393897.355761 -0.129840 0.003442 -0.335062 
1413393897.505760 -0.128818 0.027263 -0.331697 
1413393897.605761 -0.124927 0.153792 -0.317587 
1413393897.755760 -0.112612 0.265939 -0.276684 
1413393897.855761 -0.112198 0.249993 -0.275517 
1413393898.005760 -0.085139 0.317130 -0.184672 
1413393898.105761 -0.067444 0.339127 -0.122917 
1413393898.205760 -0.048542 0.326172 -0.060761 
1413393898.305760 -0.049518 0.318083 -0.064929 
1413393898.405761 -0.035780 0.284536 -0.023878 
1413393898.555760 -0.035485 0.284241 -0.023425 
1413393898.655761 -0.036080 0.277089 -0.026550 
1413393898.755760 -0.034043 0.277654 -0.020188 
1413393898.855761 -0.028154 0.260580 -0.002686 
1413393899.005760 -0.027204 0.254423 -0.001191 
1413393899.105761 -0.029273 0.211938 -0.003191 
1413393899.205760 -0.029261 0.213777 -0.002349 
1413393899.305760 -0.029951 0.209207 -0.005259 
1413393899.405761 -0.028262 0.210552 0.000240 
1413393899.505760 -0.029682 0.198649 -0.002448 
1413393899.605761 -0.029253 0.196901 -0.001622 
1413393899.755760 -0.038537 0.161782 -0.024175 
1413393899.855761 -0.038842 0.160701 -0.025346 
1413393900.005760 -0.037048 0.170823 -0.019930 
1413393900.105761 -0.036628 0.170235 -0.018639 
1413393900.255760 -0.051505 0.143090 -0.039406 
1413393900.355761 -0.050107 0.146614 -0.036815 
1413393900.455760 -0.036827 0.178771 -0.006807 
1413393900.555760 -0.034614 0.181568 -0.002087 
1413393900.655761 -0.035224 0.182132 -0.003502 
1413393900.755760 -0.034906 0.185323 -0.002953 
1413393900.855761 -0.030157 0.148462 0.010472 
1413393900.955760 -0.030823 0.147646 0.007312 
1413393901.055760 -0.029289 0.150109 0.009879 
1413393901.155761 -0.029883 0.150224 0.009112 
1413393901.305760 -0.028810 0.151617 0.012820 
1413393901.405761 -0.027277 0.147427 0.015547 
1413393901.555760 -0.026729 0.149947 0.016754 
1413393901.655761 -0.026980 0.150163 0.017189 
1413393901.755760 -0.027806 0.147836 0.015140 
1413393901.855761 -0.027734 0.144503 0.014155 
1413393902.005760 -0.026797 0.145641 0.016396 
1413393902.105761 -0.026398 0.146172 0.017334 
1413393902.255760 -0.027261 0.142042 0.013854 
1413393902.355761 -0.027068 0.143484 0.015129 
1413393902.505760 -0.029092 0.141401 0.011698 
1413393902.605761 -0.029415 0.141957 0.011404 
1413393902.755760 -0.029705 0.137373 0.007616 
1413393902.855761 -0.029835 0.137933 0.005806 
1413393902.955760 -0.029778 0.136004 0.005347 
1413393903.105761 -0.030378 0.137274 0.004967 
1413393903.205760 -0.027467 0.145468 0.010724 
1413393903.355761 -0.026328 0.150618 0.014178 
1413393903.455760 -0.026640 0.150614 0.012977 
1413393903.605761 -0.025638 0.151924 0.015203 
1413393903.755760 -0.025618 0.152095 0.015350 
1413393903.855761 -0.024696 0.148571 0.016783 
1413393904.005760 -0.020868 0.153763 0.024406 
1413393904.105761 -0.020639 0.153989 0.024650 
1413393904.255760 -0.020659 0.153462 0.024344 
1413393904.355761 -0.020259 0.154073 0.025362 
1413393904.505760 -0.019329 0.156969 0.027351 
1413393904.605761 -0.018160 0.157580 0.029484 
1413393904.755760 -0.018355 0.156075 0.028646 
1413393904.855761 -0.017989 0.156326 0.029592 
1413393904.955760 -0.017995 0.156780 0.029341 
1413393905.055760 -0.017739 0.157150 0.030772 
1413393905.155761 -0.017625 0.157911 0.030996 
1413393905.255760 -0.017199 0.158642 0.032370 
