1413393890.255760 -0.001320 0.023366 0.080303 
1413393890.355761 -0.001344 0.023411 0.080240 
1413393890.505760 -0.001360 0.023434 0.080217 
1413393890.605761 -0.001355 0.023464 0.080237 
1413393890.755760 -0.001362 0.023494 0.080241 
1413393890.855761 -0.001367 0.023512 0.080208 
1413393891.005760 -0.001377 0.023531 0.080151 
1413393891.105761 -0.001386 0.023545 0.080151 
1413393891.255760 -0.001419 0.023596 0.080152 
1413393891.355761 -0.001421 0.023574 0.080134 
1413393891.505760 -0.001427 0.023576 0.080145 
1413393891.605761 -0.001431 0.023625 0.080115 
1413393891.755760 -0.001410 0.023630 0.080139 
1413393891.855761 -0.001411 0.023601 0.080173 
1413393891.955760 -0.001417 0.023620 0.080194 
1413393892.105761 -0.001398 0.023607 0.080199 
1413393892.205760 -0.001398 0.023657 0.080196 
1413393892.355761 -0.001392 0.023648 0.080184 
1413393892.455760 -0.001383 0.023635 0.080187 
1413393892.605761 -0.001386 0.023623 0.080158 
1413393892.705760 -0.001396 0.023521 0.080130 
1413393892.805760 -0.001395 0.023520 0.080130 
1413393892.905761 -0.001403 0.023537 0.080144 
1413393893.055760 -0.001423 0.023573 0.080164 
1413393893.155761 -0.001419 0.023567 0.080169 
1413393893.305760 -0.001422 0.023586 0.080156 
1413393893.405761 -0.001428 0.023588 0.080116 
1413393893.555760 -0.001420 0.023575 0.080120 
1413393893.655761 -0.001420 0.023576 0.080115 
1413393893.805760 -0.001401 0.023563 0.080131 
1413393893.905761 -0.001401 0.023562 0.080129 
1413393894.055760 -0.001409 0.023559 0.080131 
1413393894.155761 -0.001382 0.023570 0.080122 
1413393894.305760 -0.001387 0.023580 0.080124 
1413393894.405761 -0.001393 0.023579 0.080117 
1413393894.555760 -0.001400 0.023603 0.080124 
1413393894.655761 -0.001407 0.023606 0.080125 
1413393894.805760 -0.001421 0.023598 0.080123 
1413393894.905761 -0.001424 0.023590 0.080124 
1413393895.055760 -0.001427 0.023592 0.080148 
1413393895.155761 -0.001423 0.023589 0.080144 
1413393895.255760 -0.001435 0.023600 0.080144 
1413393895.355761 -0.001438 0.023602 0.080137 
1413393895.505760 -0.001430 0.023604 0.080143 
1413393895.605761 -0.001423 0.023612 0.080153 
1413393895.705760 -0.001423 0.023612 0.080159 
1413393895.855761 -0.001420 0.023618 0.080171 
1413393896.005760 -0.001420 0.023627 0.080164 
1413393896.105761 -0.001417 0.023608 0.080145 
1413393896.255760 -0.001405 0.023580 0.080129 
1413393896.355761 -0.001403 0.023566 0.080129 
1413393896.455760 -0.001406 0.023587 0.080123 
1413393896.605761 -0.001418 0.023573 0.080130 
1413393896.755760 -0.001413 0.023598 0.080116 
1413393896.855761 -0.001421 0.023600 0.080102 
1413393897.005760 -0.001419 0.023577 0.080094 
1413393897.105761 -0.001401 0.023571 0.080095 
1413393897.255760 -0.001382 0.023544 0.080089 
1413393897.355761 -0.001387 0.023538 0.080120 
1413393897.505760 -0.001390 0.023552 0.080095 
1413393897.605761 -0.001368 0.023544 0.080085 
1413393897.755760 -0.001358 0.023563 0.080077 
1413393897.855761 -0.001353 0.023558 0.080076 
1413393898.005760 -0.001342 0.023599 0.080087 
1413393898.105761 -0.001366 0.023616 0.080070 
1413393898.205760 -0.001378 0.023652 0.080027 
1413393898.305760 -0.001381 0.023637 0.080010 
1413393898.405761 -0.001422 0.023654 0.080002 
1413393898.555760 -0.001496 0.023689 0.080000 
1413393898.655761 -0.001496 0.023662 0.079997 
1413393898.755760 -0.001486 0.023673 0.079971 
1413393898.855761 -0.001360 0.023720 0.079961 
1413393899.005760 -0.001316 0.023633 0.079922 
1413393899.105761 -0.001283 0.023602 0.079915 
1413393899.205760 -0.001317 0.023592 0.079899 
1413393899.305760 -0.001387 0.023461 0.079878 
1413393899.405761 -0.001376 0.023455 0.079872 
1413393899.505760 -0.001344 0.023324 0.079872 
1413393899.605761 -0.001344 0.023338 0.079873 
1413393899.755760 -0.001509 0.023511 0.079803 
1413393899.855761 -0.001495 0.023506 0.079791 
1413393900.005760 -0.001415 0.023586 0.079725 
1413393900.105761 -0.001367 0.023598 0.079752 
1413393900.255760 -0.001471 0.023822 0.079745 
1413393900.355761 -0.001462 0.023799 0.079733 
1413393900.455760 -0.001387 0.023754 0.079747 
1413393900.555760 -0.001479 0.023667 0.079736 
1413393900.655761 -0.001471 0.023653 0.079736 
1413393900.755760 -0.001454 0.023705 0.079755 
1413393900.855761 -0.001516 0.023487 0.079797 
1413393900.955760 -0.001506 0.023499 0.079797 
1413393901.055760 -0.001501 0.023503 0.079799 
1413393901.155761 -0.001502 0.023497 0.079798 
1413393901.305760 -0.001503 0.023528 0.079790 
1413393901.405761 -0.001426 0.023492 0.079812 
1413393901.555760 -0.001405 0.023477 0.079816 
1413393901.655761 -0.001404 0.023452 0.079801 
1413393901.755760 -0.001413 0.023441 0.079811 
1413393901.855761 -0.001418 0.023402 0.079826 
1413393902.005760 -0.001420 0.023456 0.079832 
1413393902.105761 -0.001396 0.023498 0.079840 
1413393902.255760 -0.001384 0.023520 0.079849 
1413393902.355761 -0.001370 0.023525 0.079849 
1413393902.505760 -0.001372 0.023525 0.079859 
1413393902.605761 -0.001382 0.023535 0.079852 
1413393902.755760 -0.001388 0.023543 0.079854 
1413393902.855761 -0.001384 0.023550 0.079835 
1413393902.955760 -0.001393 0.023579 0.079824 
1413393903.105761 -0.001394 0.023553 0.079852 
1413393903.205760 -0.001401 0.023584 0.079844 
1413393903.355761 -0.001394 0.023599 0.079832 
1413393903.455760 -0.001379 0.023588 0.079829 
1413393903.605761 -0.001368 0.023576 0.079846 
1413393903.755760 -0.001343 0.023587 0.079848 
1413393903.855761 -0.001346 0.023574 0.079837 
1413393904.005760 -0.001336 0.023587 0.079848 
1413393904.105761 -0.001340 0.023600 0.079850 
1413393904.255760 -0.001330 0.023600 0.079847 
1413393904.355761 -0.001338 0.023621 0.079847 
1413393904.505760 -0.001328 0.023618 0.079864 
1413393904.605761 -0.001301 0.023632 0.079876 
1413393904.755760 -0.001209 0.023681 0.079835 
1413393904.855761 -0.001224 0.023720 0.079836 
1413393904.955760 -0.001223 0.023706 0.079839 
1413393905.055760 -0.001223 0.023682 0.079839 
1413393905.155761 -0.001243 0.023685 0.079836 
1413393905.255760 -0.001239 0.023700 0.079830 
